<?xml version="1.0"?>
<opencv_storage>
<NewTrained type_id="opencv-haar-classifier">
  <size>
    35 35</size>
  <stages>
    <_>
      <!-- stage 0 -->
      <trees>
        <_>
          <!-- tree 0 -->
          <_>
            <!-- root node -->
            <feature>
              <rects>
                <_>
                  0 10 16 21 -1.</_>
                <_>
                  8 10 8 21 2.</_></rects>
              <tilted>0</tilted></feature>
            <threshold>-0.0643143728375435</threshold>
            <left_node>1</left_node>
            <right_val>-0.6861640810966492</right_val></_>
          <_>
            <!-- node 1 -->
            <feature>
              <rects>
                <_>
                  3 0 21 34 -1.</_>
                <_>
                  3 17 21 17 2.</_></rects>
              <tilted>0</tilted></feature>
            <threshold>-0.0462169498205185</threshold>
            <left_val>0.8552234172821045</left_val>
            <right_val>-0.2130977958440781</right_val></_></_>
        <_>
          <!-- tree 1 -->
          <_>
            <!-- root node -->
            <feature>
              <rects>
                <_>
                  17 6 18 29 -1.</_>
                <_>
                  26 6 9 29 2.</_></rects>
              <tilted>0</tilted></feature>
            <threshold>0.0467206984758377</threshold>
            <left_val>-0.5461521148681641</left_val>
            <right_node>1</right_node></_>
          <_>
            <!-- node 1 -->
            <feature>
              <rects>
                <_>
                  13 0 16 20 -1.</_>
                <_>
                  13 10 16 10 2.</_></rects>
              <tilted>0</tilted></feature>
            <threshold>-0.0436074994504452</threshold>
            <left_val>0.7529246211051941</left_val>
            <right_val>-0.2078763991594315</right_val></_></_>
        <_>
          <!-- tree 2 -->
          <_>
            <!-- root node -->
            <feature>
              <rects>
                <_>
                  8 34 26 1 -1.</_>
                <_>
                  21 34 13 1 2.</_></rects>
              <tilted>0</tilted></feature>
            <threshold>0.0111517095938325</threshold>
            <left_node>1</left_node>
            <right_val>0.6286414265632629</right_val></_>
          <_>
            <!-- node 1 -->
            <feature>
              <rects>
                <_>
                  13 0 12 8 -1.</_>
                <_>
                  13 0 6 8 2.</_></rects>
              <tilted>1</tilted></feature>
            <threshold>0.0480847992002964</threshold>
            <left_val>-0.5161036252975464</left_val>
            <right_val>0.1993446946144104</right_val></_></_>
        <_>
          <!-- tree 3 -->
          <_>
            <!-- root node -->
            <feature>
              <rects>
                <_>
                  5 17 2 14 -1.</_>
                <_>
                  5 24 2 7 2.</_></rects>
              <tilted>0</tilted></feature>
            <threshold>-1.0648439638316631e-04</threshold>
            <left_node>1</left_node>
            <right_val>-0.5356171727180481</right_val></_>
          <_>
            <!-- node 1 -->
            <feature>
              <rects>
                <_>
                  22 26 1 3 -1.</_>
                <_>
                  21 27 1 1 3.</_></rects>
              <tilted>1</tilted></feature>
            <threshold>-7.5379182817414403e-04</threshold>
            <left_val>-0.6365560889244080</left_val>
            <right_val>0.3054010868072510</right_val></_></_>
        <_>
          <!-- tree 4 -->
          <_>
            <!-- root node -->
            <feature>
              <rects>
                <_>
                  23 13 6 11 -1.</_>
                <_>
                  25 15 2 11 3.</_></rects>
              <tilted>1</tilted></feature>
            <threshold>7.5673260726034641e-03</threshold>
            <left_node>1</left_node>
            <right_val>0.4657242000102997</right_val></_>
          <_>
            <!-- node 1 -->
            <feature>
              <rects>
                <_>
                  11 16 16 10 -1.</_>
                <_>
                  11 16 8 5 2.</_>
                <_>
                  19 21 8 5 2.</_></rects>
              <tilted>0</tilted></feature>
            <threshold>0.0121574401855469</threshold>
            <left_val>-0.4557487070560455</left_val>
            <right_val>0.3241665065288544</right_val></_></_>
        <_>
          <!-- tree 5 -->
          <_>
            <!-- root node -->
            <feature>
              <rects>
                <_>
                  12 0 19 10 -1.</_>
                <_>
                  12 5 19 5 2.</_></rects>
              <tilted>0</tilted></feature>
            <threshold>-0.0139285698533058</threshold>
            <left_val>0.3051002025604248</left_val>
            <right_node>1</right_node></_>
          <_>
            <!-- node 1 -->
            <feature>
              <rects>
                <_>
                  0 9 14 24 -1.</_>
                <_>
                  0 9 7 12 2.</_>
                <_>
                  7 21 7 12 2.</_></rects>
              <tilted>0</tilted></feature>
            <threshold>-0.0152864800766110</threshold>
            <left_val>0.1680493950843811</left_val>
            <right_val>-0.6439141035079956</right_val></_></_>
        <_>
          <!-- tree 6 -->
          <_>
            <!-- root node -->
            <feature>
              <rects>
                <_>
                  19 24 3 11 -1.</_>
                <_>
                  20 24 1 11 3.</_></rects>
              <tilted>0</tilted></feature>
            <threshold>1.8140230095013976e-03</threshold>
            <left_node>1</left_node>
            <right_val>-0.7653477787971497</right_val></_>
          <_>
            <!-- node 1 -->
            <feature>
              <rects>
                <_>
                  18 26 3 9 -1.</_>
                <_>
                  19 26 1 9 3.</_></rects>
              <tilted>0</tilted></feature>
            <threshold>1.7631179653108120e-03</threshold>
            <left_val>0.2796638011932373</left_val>
            <right_val>-0.7937505245208740</right_val></_></_>
        <_>
          <!-- tree 7 -->
          <_>
            <!-- root node -->
            <feature>
              <rects>
                <_>
                  12 10 18 12 -1.</_>
                <_>
                  12 10 9 6 2.</_>
                <_>
                  21 16 9 6 2.</_></rects>
              <tilted>0</tilted></feature>
            <threshold>0.0221820399165154</threshold>
            <left_node>1</left_node>
            <right_val>0.4214994907379150</right_val></_>
          <_>
            <!-- node 1 -->
            <feature>
              <rects>
                <_>
                  17 11 14 8 -1.</_>
                <_>
                  17 11 7 4 2.</_>
                <_>
                  24 15 7 4 2.</_></rects>
              <tilted>0</tilted></feature>
            <threshold>-7.8415181487798691e-03</threshold>
            <left_val>0.2435524016618729</left_val>
            <right_val>-0.4254106879234314</right_val></_></_></trees>
      <stage_threshold>-1.7960100173950195</stage_threshold>
      <parent>-1</parent>
      <next>-1</next></_>
    <_>
      <!-- stage 1 -->
      <trees>
        <_>
          <!-- tree 0 -->
          <_>
            <!-- root node -->
            <feature>
              <rects>
                <_>
                  0 10 18 19 -1.</_>
                <_>
                  9 10 9 19 2.</_></rects>
              <tilted>0</tilted></feature>
            <threshold>-0.0909451171755791</threshold>
            <left_node>1</left_node>
            <right_val>-0.6204730272293091</right_val></_>
          <_>
            <!-- node 1 -->
            <feature>
              <rects>
                <_>
                  11 22 24 13 -1.</_>
                <_>
                  23 22 12 13 2.</_></rects>
              <tilted>0</tilted></feature>
            <threshold>8.0341817811131477e-03</threshold>
            <left_val>-0.2789637148380280</left_val>
            <right_val>0.8375719785690308</right_val></_></_>
        <_>
          <!-- tree 1 -->
          <_>
            <!-- root node -->
            <feature>
              <rects>
                <_>
                  14 27 20 8 -1.</_>
                <_>
                  24 27 10 8 2.</_></rects>
              <tilted>0</tilted></feature>
            <threshold>0.0642377436161041</threshold>
            <left_node>1</left_node>
            <right_val>0.6391441226005554</right_val></_>
          <_>
            <!-- node 1 -->
            <feature>
              <rects>
                <_>
                  11 1 24 16 -1.</_>
                <_>
                  17 1 12 16 2.</_></rects>
              <tilted>0</tilted></feature>
            <threshold>-0.0281261298805475</threshold>
            <left_val>0.1965679973363876</left_val>
            <right_val>-0.5779367089271545</right_val></_></_>
        <_>
          <!-- tree 2 -->
          <_>
            <!-- root node -->
            <feature>
              <rects>
                <_>
                  18 0 8 18 -1.</_>
                <_>
                  18 0 4 18 2.</_></rects>
              <tilted>1</tilted></feature>
            <threshold>0.0781416594982147</threshold>
            <left_node>1</left_node>
            <right_val>0.5809801816940308</right_val></_>
          <_>
            <!-- node 1 -->
            <feature>
              <rects>
                <_>
                  3 31 24 4 -1.</_>
                <_>
                  15 31 12 4 2.</_></rects>
              <tilted>0</tilted></feature>
            <threshold>0.0598254688084126</threshold>
            <left_val>-0.3161036074161530</left_val>
            <right_val>0.5037680864334106</right_val></_></_>
        <_>
          <!-- tree 3 -->
          <_>
            <!-- root node -->
            <feature>
              <rects>
                <_>
                  0 16 1 6 -1.</_>
                <_>
                  0 19 1 3 2.</_></rects>
              <tilted>0</tilted></feature>
            <threshold>-4.6452649985440075e-04</threshold>
            <left_val>-0.5107979774475098</left_val>
            <right_node>1</right_node></_>
          <_>
            <!-- node 1 -->
            <feature>
              <rects>
                <_>
                  0 14 1 4 -1.</_>
                <_>
                  0 16 1 2 2.</_></rects>
              <tilted>0</tilted></feature>
            <threshold>-1.8088560318574309e-04</threshold>
            <left_val>-0.3690994977951050</left_val>
            <right_val>0.3497343063354492</right_val></_></_>
        <_>
          <!-- tree 4 -->
          <_>
            <!-- root node -->
            <feature>
              <rects>
                <_>
                  19 0 16 15 -1.</_>
                <_>
                  19 0 8 15 2.</_></rects>
              <tilted>1</tilted></feature>
            <threshold>-0.0456967093050480</threshold>
            <left_val>-0.5641204714775085</left_val>
            <right_node>1</right_node></_>
          <_>
            <!-- node 1 -->
            <feature>
              <rects>
                <_>
                  31 34 2 1 -1.</_>
                <_>
                  32 34 1 1 2.</_></rects>
              <tilted>0</tilted></feature>
            <threshold>-9.7380412626080215e-05</threshold>
            <left_val>-0.5549408197402954</left_val>
            <right_val>0.2845279872417450</right_val></_></_>
        <_>
          <!-- tree 5 -->
          <_>
            <!-- root node -->
            <feature>
              <rects>
                <_>
                  31 34 2 1 -1.</_>
                <_>
                  32 34 1 1 2.</_></rects>
              <tilted>0</tilted></feature>
            <threshold>7.2907831054180861e-05</threshold>
            <left_node>1</left_node>
            <right_val>-0.5733163952827454</right_val></_>
          <_>
            <!-- node 1 -->
            <feature>
              <rects>
                <_>
                  6 5 24 30 -1.</_>
                <_>
                  6 20 24 15 2.</_></rects>
              <tilted>0</tilted></feature>
            <threshold>-0.3886604905128479</threshold>
            <left_val>-0.8553454279899597</left_val>
            <right_val>0.2721031904220581</right_val></_></_>
        <_>
          <!-- tree 6 -->
          <_>
            <!-- root node -->
            <feature>
              <rects>
                <_>
                  16 25 3 2 -1.</_>
                <_>
                  17 25 1 2 3.</_></rects>
              <tilted>0</tilted></feature>
            <threshold>6.6395098110660911e-04</threshold>
            <left_node>1</left_node>
            <right_val>-0.8046180009841919</right_val></_>
          <_>
            <!-- node 1 -->
            <feature>
              <rects>
                <_>
                  15 25 3 1 -1.</_>
                <_>
                  16 25 1 1 3.</_></rects>
              <tilted>0</tilted></feature>
            <threshold>4.0604759124107659e-04</threshold>
            <left_val>0.1652798950672150</left_val>
            <right_val>-0.7811157107353210</right_val></_></_>
        <_>
          <!-- tree 7 -->
          <_>
            <!-- root node -->
            <feature>
              <rects>
                <_>
                  0 6 2 2 -1.</_>
                <_>
                  0 6 1 1 2.</_>
                <_>
                  1 7 1 1 2.</_></rects>
              <tilted>0</tilted></feature>
            <threshold>1.1326860112603754e-04</threshold>
            <left_node>1</left_node>
            <right_val>-0.6087465882301331</right_val></_>
          <_>
            <!-- node 1 -->
            <feature>
              <rects>
                <_>
                  27 12 8 12 -1.</_>
                <_>
                  31 12 4 12 2.</_></rects>
              <tilted>0</tilted></feature>
            <threshold>0.0164780393242836</threshold>
            <left_val>-0.0767413526773453</left_val>
            <right_val>0.5348364114761353</right_val></_></_>
        <_>
          <!-- tree 8 -->
          <_>
            <!-- root node -->
            <feature>
              <rects>
                <_>
                  28 14 6 12 -1.</_>
                <_>
                  30 16 2 12 3.</_></rects>
              <tilted>1</tilted></feature>
            <threshold>0.0145562896504998</threshold>
            <left_node>1</left_node>
            <right_val>0.5669658780097961</right_val></_>
          <_>
            <!-- node 1 -->
            <feature>
              <rects>
                <_>
                  28 19 6 8 -1.</_>
                <_>
                  30 21 2 8 3.</_></rects>
              <tilted>1</tilted></feature>
            <threshold>0.0198967903852463</threshold>
            <left_val>-0.2615469098091125</left_val>
            <right_val>0.6689597964286804</right_val></_></_></trees>
      <stage_threshold>-1.7510540485382080</stage_threshold>
      <parent>0</parent>
      <next>-1</next></_>
    <_>
      <!-- stage 2 -->
      <trees>
        <_>
          <!-- tree 0 -->
          <_>
            <!-- root node -->
            <feature>
              <rects>
                <_>
                  1 12 32 23 -1.</_>
                <_>
                  9 12 16 23 2.</_></rects>
              <tilted>0</tilted></feature>
            <threshold>-0.1989576965570450</threshold>
            <left_val>0.7250915169715881</left_val>
            <right_node>1</right_node></_>
          <_>
            <!-- node 1 -->
            <feature>
              <rects>
                <_>
                  3 29 28 6 -1.</_>
                <_>
                  17 29 14 6 2.</_></rects>
              <tilted>0</tilted></feature>
            <threshold>0.0807791501283646</threshold>
            <left_val>-0.6654487848281860</left_val>
            <right_val>0.1351402997970581</right_val></_></_>
        <_>
          <!-- tree 1 -->
          <_>
            <!-- root node -->
            <feature>
              <rects>
                <_>
                  16 0 12 16 -1.</_>
                <_>
                  16 0 6 16 2.</_></rects>
              <tilted>1</tilted></feature>
            <threshold>0.1236205995082855</threshold>
            <left_node>1</left_node>
            <right_val>0.5321466922760010</right_val></_>
          <_>
            <!-- node 1 -->
            <feature>
              <rects>
                <_>
                  10 0 18 10 -1.</_>
                <_>
                  10 5 18 5 2.</_></rects>
              <tilted>0</tilted></feature>
            <threshold>-0.0525479316711426</threshold>
            <left_val>0.2692115008831024</left_val>
            <right_val>-0.5044456720352173</right_val></_></_>
        <_>
          <!-- tree 2 -->
          <_>
            <!-- root node -->
            <feature>
              <rects>
                <_>
                  16 21 14 12 -1.</_>
                <_>
                  16 21 7 6 2.</_>
                <_>
                  23 27 7 6 2.</_></rects>
              <tilted>0</tilted></feature>
            <threshold>0.0232511907815933</threshold>
            <left_node>1</left_node>
            <right_val>0.5928509831428528</right_val></_>
          <_>
            <!-- node 1 -->
            <feature>
              <rects>
                <_>
                  2 21 4 12 -1.</_>
                <_>
                  2 27 4 6 2.</_></rects>
              <tilted>0</tilted></feature>
            <threshold>-2.4541479433537461e-05</threshold>
            <left_val>5.1569961942732334e-03</left_val>
            <right_val>-0.6107339859008789</right_val></_></_>
        <_>
          <!-- tree 3 -->
          <_>
            <!-- root node -->
            <feature>
              <rects>
                <_>
                  5 1 26 34 -1.</_>
                <_>
                  5 18 26 17 2.</_></rects>
              <tilted>0</tilted></feature>
            <threshold>-0.0978145971894264</threshold>
            <left_node>1</left_node>
            <right_val>-0.4752160906791687</right_val></_>
          <_>
            <!-- node 1 -->
            <feature>
              <rects>
                <_>
                  0 0 2 4 -1.</_>
                <_>
                  0 2 2 2 2.</_></rects>
              <tilted>0</tilted></feature>
            <threshold>-3.2296680728904903e-04</threshold>
            <left_val>-0.4734090864658356</left_val>
            <right_val>0.2940059900283813</right_val></_></_>
        <_>
          <!-- tree 4 -->
          <_>
            <!-- root node -->
            <feature>
              <rects>
                <_>
                  33 34 2 1 -1.</_>
                <_>
                  34 34 1 1 2.</_></rects>
              <tilted>0</tilted></feature>
            <threshold>-1.0114580072695389e-04</threshold>
            <left_val>-0.5700346231460571</left_val>
            <right_node>1</right_node></_>
          <_>
            <!-- node 1 -->
            <feature>
              <rects>
                <_>
                  33 34 2 1 -1.</_>
                <_>
                  34 34 1 1 2.</_></rects>
              <tilted>0</tilted></feature>
            <threshold>7.1873968408908695e-05</threshold>
            <left_val>0.3782682120800018</left_val>
            <right_val>-0.4203870892524719</right_val></_></_>
        <_>
          <!-- tree 5 -->
          <_>
            <!-- root node -->
            <feature>
              <rects>
                <_>
                  22 10 12 12 -1.</_>
                <_>
                  25 10 6 12 2.</_></rects>
              <tilted>0</tilted></feature>
            <threshold>-8.6208377033472061e-03</threshold>
            <left_val>0.3825230002403259</left_val>
            <right_node>1</right_node></_>
          <_>
            <!-- node 1 -->
            <feature>
              <rects>
                <_>
                  22 7 10 20 -1.</_>
                <_>
                  22 7 5 10 2.</_>
                <_>
                  27 17 5 10 2.</_></rects>
              <tilted>0</tilted></feature>
            <threshold>-0.0125104999169707</threshold>
            <left_val>0.2356726974248886</left_val>
            <right_val>-0.4211215078830719</right_val></_></_>
        <_>
          <!-- tree 6 -->
          <_>
            <!-- root node -->
            <feature>
              <rects>
                <_>
                  17 22 3 12 -1.</_>
                <_>
                  18 22 1 12 3.</_></rects>
              <tilted>0</tilted></feature>
            <threshold>2.3612820077687502e-03</threshold>
            <left_node>1</left_node>
            <right_val>-0.7350909709930420</right_val></_>
          <_>
            <!-- node 1 -->
            <feature>
              <rects>
                <_>
                  18 22 3 7 -1.</_>
                <_>
                  19 22 1 7 3.</_></rects>
              <tilted>0</tilted></feature>
            <threshold>1.3471239944919944e-03</threshold>
            <left_val>0.2243089973926544</left_val>
            <right_val>-0.6479905843734741</right_val></_></_>
        <_>
          <!-- tree 7 -->
          <_>
            <!-- root node -->
            <feature>
              <rects>
                <_>
                  23 19 8 8 -1.</_>
                <_>
                  25 21 4 8 2.</_></rects>
              <tilted>1</tilted></feature>
            <threshold>0.0151928104460239</threshold>
            <left_node>1</left_node>
            <right_val>0.4934380054473877</right_val></_>
          <_>
            <!-- node 1 -->
            <feature>
              <rects>
                <_>
                  0 16 12 13 -1.</_>
                <_>
                  6 16 6 13 2.</_></rects>
              <tilted>0</tilted></feature>
            <threshold>-0.0381487309932709</threshold>
            <left_val>0.2259397953748703</left_val>
            <right_val>-0.3934333920478821</right_val></_></_>
        <_>
          <!-- tree 8 -->
          <_>
            <!-- root node -->
            <feature>
              <rects>
                <_>
                  19 26 3 3 -1.</_>
                <_>
                  20 26 1 3 3.</_></rects>
              <tilted>0</tilted></feature>
            <threshold>5.9296947438269854e-04</threshold>
            <left_node>1</left_node>
            <right_val>-0.6257330179214478</right_val></_>
          <_>
            <!-- node 1 -->
            <feature>
              <rects>
                <_>
                  0 8 2 2 -1.</_>
                <_>
                  0 8 1 1 2.</_>
                <_>
                  1 9 1 1 2.</_></rects>
              <tilted>0</tilted></feature>
            <threshold>1.0617329826345667e-04</threshold>
            <left_val>0.2563914060592651</left_val>
            <right_val>-0.4882572889328003</right_val></_></_>
        <_>
          <!-- tree 9 -->
          <_>
            <!-- root node -->
            <feature>
              <rects>
                <_>
                  0 15 2 4 -1.</_>
                <_>
                  0 15 1 2 2.</_>
                <_>
                  1 17 1 2 2.</_></rects>
              <tilted>0</tilted></feature>
            <threshold>1.6317539848387241e-04</threshold>
            <left_node>1</left_node>
            <right_val>-0.5255166888237000</right_val></_>
          <_>
            <!-- node 1 -->
            <feature>
              <rects>
                <_>
                  0 15 2 4 -1.</_>
                <_>
                  0 15 1 2 2.</_>
                <_>
                  1 17 1 2 2.</_></rects>
              <tilted>0</tilted></feature>
            <threshold>-1.6424170462414622e-04</threshold>
            <left_val>-0.3490020930767059</left_val>
            <right_val>0.2803038954734802</right_val></_></_>
        <_>
          <!-- tree 10 -->
          <_>
            <!-- root node -->
            <feature>
              <rects>
                <_>
                  22 18 12 6 -1.</_>
                <_>
                  22 18 6 3 2.</_>
                <_>
                  28 21 6 3 2.</_></rects>
              <tilted>0</tilted></feature>
            <threshold>9.0374872088432312e-03</threshold>
            <left_node>1</left_node>
            <right_val>0.5698963999748230</right_val></_>
          <_>
            <!-- node 1 -->
            <feature>
              <rects>
                <_>
                  21 26 1 2 -1.</_>
                <_>
                  21 27 1 1 2.</_></rects>
              <tilted>0</tilted></feature>
            <threshold>-1.2111700016248506e-05</threshold>
            <left_val>0.1168719977140427</left_val>
            <right_val>-0.3874449133872986</right_val></_></_></trees>
      <stage_threshold>-1.8504920005798340</stage_threshold>
      <parent>1</parent>
      <next>-1</next></_>
    <_>
      <!-- stage 3 -->
      <trees>
        <_>
          <!-- tree 0 -->
          <_>
            <!-- root node -->
            <feature>
              <rects>
                <_>
                  0 12 16 23 -1.</_>
                <_>
                  8 12 8 23 2.</_></rects>
              <tilted>0</tilted></feature>
            <threshold>-0.1113255992531776</threshold>
            <left_node>1</left_node>
            <right_val>-0.5150989890098572</right_val></_>
          <_>
            <!-- node 1 -->
            <feature>
              <rects>
                <_>
                  12 29 20 6 -1.</_>
                <_>
                  22 29 10 6 2.</_></rects>
              <tilted>0</tilted></feature>
            <threshold>0.0238255597651005</threshold>
            <left_val>-0.2155390977859497</left_val>
            <right_val>0.8076437711715698</right_val></_></_>
        <_>
          <!-- tree 1 -->
          <_>
            <!-- root node -->
            <feature>
              <rects>
                <_>
                  8 0 20 24 -1.</_>
                <_>
                  8 12 20 12 2.</_></rects>
              <tilted>0</tilted></feature>
            <threshold>-0.0670240968465805</threshold>
            <left_node>1</left_node>
            <right_val>-0.5163136720657349</right_val></_>
          <_>
            <!-- node 1 -->
            <feature>
              <rects>
                <_>
                  7 5 28 13 -1.</_>
                <_>
                  14 5 14 13 2.</_></rects>
              <tilted>0</tilted></feature>
            <threshold>-0.0384843982756138</threshold>
            <left_val>0.5896850824356079</left_val>
            <right_val>-0.0855334028601646</right_val></_></_>
        <_>
          <!-- tree 2 -->
          <_>
            <!-- root node -->
            <feature>
              <rects>
                <_>
                  26 16 8 10 -1.</_>
                <_>
                  28 18 4 10 2.</_></rects>
              <tilted>1</tilted></feature>
            <threshold>-0.0203690491616726</threshold>
            <left_val>0.5589773058891296</left_val>
            <right_node>1</right_node></_>
          <_>
            <!-- node 1 -->
            <feature>
              <rects>
                <_>
                  24 20 6 4 -1.</_>
                <_>
                  26 22 2 4 3.</_></rects>
              <tilted>1</tilted></feature>
            <threshold>5.8441772125661373e-03</threshold>
            <left_val>-0.3681935966014862</left_val>
            <right_val>0.2784310877323151</right_val></_></_>
        <_>
          <!-- tree 3 -->
          <_>
            <!-- root node -->
            <feature>
              <rects>
                <_>
                  31 34 4 1 -1.</_>
                <_>
                  33 34 2 1 2.</_></rects>
              <tilted>0</tilted></feature>
            <threshold>-2.5521279894746840e-04</threshold>
            <left_val>-0.6328647732734680</left_val>
            <right_node>1</right_node></_>
          <_>
            <!-- node 1 -->
            <feature>
              <rects>
                <_>
                  31 33 4 2 -1.</_>
                <_>
                  33 33 2 2 2.</_></rects>
              <tilted>0</tilted></feature>
            <threshold>2.2587999410461634e-04</threshold>
            <left_val>0.3480261862277985</left_val>
            <right_val>-0.3919200897216797</right_val></_></_>
        <_>
          <!-- tree 4 -->
          <_>
            <!-- root node -->
            <feature>
              <rects>
                <_>
                  8 27 12 8 -1.</_>
                <_>
                  8 31 12 4 2.</_></rects>
              <tilted>0</tilted></feature>
            <threshold>-9.9922865629196167e-03</threshold>
            <left_val>0.3509080111980438</left_val>
            <right_node>1</right_node></_>
          <_>
            <!-- node 1 -->
            <feature>
              <rects>
                <_>
                  4 34 18 1 -1.</_>
                <_>
                  13 34 9 1 2.</_></rects>
              <tilted>0</tilted></feature>
            <threshold>0.0133863901719451</threshold>
            <left_val>-0.3260042071342468</left_val>
            <right_val>0.6247903108596802</right_val></_></_>
        <_>
          <!-- tree 5 -->
          <_>
            <!-- root node -->
            <feature>
              <rects>
                <_>
                  0 0 5 4 -1.</_>
                <_>
                  0 2 5 2 2.</_></rects>
              <tilted>0</tilted></feature>
            <threshold>5.6227092863991857e-04</threshold>
            <left_node>1</left_node>
            <right_val>-0.4638147056102753</right_val></_>
          <_>
            <!-- node 1 -->
            <feature>
              <rects>
                <_>
                  0 0 10 4 -1.</_>
                <_>
                  0 0 5 2 2.</_>
                <_>
                  5 2 5 2 2.</_></rects>
              <tilted>0</tilted></feature>
            <threshold>7.5165857560932636e-04</threshold>
            <left_val>0.3355867862701416</left_val>
            <right_val>-0.3578620851039886</right_val></_></_>
        <_>
          <!-- tree 6 -->
          <_>
            <!-- root node -->
            <feature>
              <rects>
                <_>
                  0 6 14 26 -1.</_>
                <_>
                  7 6 7 26 2.</_></rects>
              <tilted>0</tilted></feature>
            <threshold>-0.0320793502032757</threshold>
            <left_val>0.2410344034433365</left_val>
            <right_node>1</right_node></_>
          <_>
            <!-- node 1 -->
            <feature>
              <rects>
                <_>
                  0 6 4 27 -1.</_>
                <_>
                  1 6 2 27 2.</_></rects>
              <tilted>0</tilted></feature>
            <threshold>-9.0567041188478470e-03</threshold>
            <left_val>0.7257099747657776</left_val>
            <right_val>-0.4873377978801727</right_val></_></_>
        <_>
          <!-- tree 7 -->
          <_>
            <!-- root node -->
            <feature>
              <rects>
                <_>
                  13 3 15 3 -1.</_>
                <_>
                  13 4 15 1 3.</_></rects>
              <tilted>0</tilted></feature>
            <threshold>2.9498680960386992e-03</threshold>
            <left_node>1</left_node>
            <right_val>0.5468990206718445</right_val></_>
          <_>
            <!-- node 1 -->
            <feature>
              <rects>
                <_>
                  17 3 12 3 -1.</_>
                <_>
                  17 4 12 1 3.</_></rects>
              <tilted>0</tilted></feature>
            <threshold>-1.0181330144405365e-03</threshold>
            <left_val>0.2789331972599030</left_val>
            <right_val>-0.3156672120094299</right_val></_></_>
        <_>
          <!-- tree 8 -->
          <_>
            <!-- root node -->
            <feature>
              <rects>
                <_>
                  5 14 2 18 -1.</_>
                <_>
                  5 23 2 9 2.</_></rects>
              <tilted>0</tilted></feature>
            <threshold>-9.9747712738462724e-06</threshold>
            <left_node>1</left_node>
            <right_val>-0.4351468086242676</right_val></_>
          <_>
            <!-- node 1 -->
            <feature>
              <rects>
                <_>
                  15 8 20 27 -1.</_>
                <_>
                  25 8 10 27 2.</_></rects>
              <tilted>0</tilted></feature>
            <threshold>0.0353445783257484</threshold>
            <left_val>-0.2218212932348251</left_val>
            <right_val>0.3455964922904968</right_val></_></_>
        <_>
          <!-- tree 9 -->
          <_>
            <!-- root node -->
            <feature>
              <rects>
                <_>
                  20 11 6 2 -1.</_>
                <_>
                  22 11 2 2 3.</_></rects>
              <tilted>0</tilted></feature>
            <threshold>9.4447791343554854e-04</threshold>
            <left_node>1</left_node>
            <right_val>0.3803210854530334</right_val></_>
          <_>
            <!-- node 1 -->
            <feature>
              <rects>
                <_>
                  26 5 1 6 -1.</_>
                <_>
                  24 7 1 2 3.</_></rects>
              <tilted>1</tilted></feature>
            <threshold>-3.3805989660322666e-03</threshold>
            <left_val>0.4091311991214752</left_val>
            <right_val>-0.3129940032958984</right_val></_></_>
        <_>
          <!-- tree 10 -->
          <_>
            <!-- root node -->
            <feature>
              <rects>
                <_>
                  3 0 10 1 -1.</_>
                <_>
                  8 0 5 1 2.</_></rects>
              <tilted>0</tilted></feature>
            <threshold>-1.1779089691117406e-03</threshold>
            <left_val>-0.4757843017578125</left_val>
            <right_node>1</right_node></_>
          <_>
            <!-- node 1 -->
            <feature>
              <rects>
                <_>
                  5 0 6 1 -1.</_>
                <_>
                  8 0 3 1 2.</_></rects>
              <tilted>0</tilted></feature>
            <threshold>3.5835240851156414e-04</threshold>
            <left_val>0.3118300139904022</left_val>
            <right_val>-0.2759107947349548</right_val></_></_>
        <_>
          <!-- tree 11 -->
          <_>
            <!-- root node -->
            <feature>
              <rects>
                <_>
                  20 25 1 2 -1.</_>
                <_>
                  20 26 1 1 2.</_></rects>
              <tilted>0</tilted></feature>
            <threshold>-1.4447529792960268e-05</threshold>
            <left_val>0.2420496940612793</left_val>
            <right_node>1</right_node></_>
          <_>
            <!-- node 1 -->
            <feature>
              <rects>
                <_>
                  15 19 8 8 -1.</_>
                <_>
                  15 21 8 4 2.</_></rects>
              <tilted>0</tilted></feature>
            <threshold>-2.3621630389243364e-03</threshold>
            <left_val>0.1500283032655716</left_val>
            <right_val>-0.5418918728828430</right_val></_></_></trees>
      <stage_threshold>-1.7114360332489014</stage_threshold>
      <parent>2</parent>
      <next>-1</next></_>
    <_>
      <!-- stage 4 -->
      <trees>
        <_>
          <!-- tree 0 -->
          <_>
            <!-- root node -->
            <feature>
              <rects>
                <_>
                  1 11 32 23 -1.</_>
                <_>
                  9 11 16 23 2.</_></rects>
              <tilted>0</tilted></feature>
            <threshold>-0.1651899069547653</threshold>
            <left_node>1</left_node>
            <right_val>-0.5128759741783142</right_val></_>
          <_>
            <!-- node 1 -->
            <feature>
              <rects>
                <_>
                  11 21 20 14 -1.</_>
                <_>
                  11 21 10 7 2.</_>
                <_>
                  21 28 10 7 2.</_></rects>
              <tilted>0</tilted></feature>
            <threshold>0.0174816492944956</threshold>
            <left_val>-0.0455671586096287</left_val>
            <right_val>0.7901536226272583</right_val></_></_>
        <_>
          <!-- tree 1 -->
          <_>
            <!-- root node -->
            <feature>
              <rects>
                <_>
                  0 0 14 28 -1.</_>
                <_>
                  0 0 7 14 2.</_>
                <_>
                  7 14 7 14 2.</_></rects>
              <tilted>0</tilted></feature>
            <threshold>-0.0374470315873623</threshold>
            <left_val>0.4069047868251801</left_val>
            <right_node>1</right_node></_>
          <_>
            <!-- node 1 -->
            <feature>
              <rects>
                <_>
                  25 10 10 8 -1.</_>
                <_>
                  30 10 5 8 2.</_></rects>
              <tilted>0</tilted></feature>
            <threshold>0.0150445196777582</threshold>
            <left_val>-0.5274537801742554</left_val>
            <right_val>0.1569395959377289</right_val></_></_>
        <_>
          <!-- tree 2 -->
          <_>
            <!-- root node -->
            <feature>
              <rects>
                <_>
                  28 16 6 8 -1.</_>
                <_>
                  30 18 2 8 3.</_></rects>
              <tilted>1</tilted></feature>
            <threshold>-0.0190928392112255</threshold>
            <left_val>0.5904247164726257</left_val>
            <right_node>1</right_node></_>
          <_>
            <!-- node 1 -->
            <feature>
              <rects>
                <_>
                  26 18 6 6 -1.</_>
                <_>
                  28 20 2 6 3.</_></rects>
              <tilted>1</tilted></feature>
            <threshold>8.4630986675620079e-03</threshold>
            <left_val>-0.3139413893222809</left_val>
            <right_val>0.3549818992614746</right_val></_></_>
        <_>
          <!-- tree 3 -->
          <_>
            <!-- root node -->
            <feature>
              <rects>
                <_>
                  11 0 4 22 -1.</_>
                <_>
                  11 11 4 11 2.</_></rects>
              <tilted>0</tilted></feature>
            <threshold>-0.0211376491934061</threshold>
            <left_node>1</left_node>
            <right_val>-0.3508214950561523</right_val></_>
          <_>
            <!-- node 1 -->
            <feature>
              <rects>
                <_>
                  3 24 32 10 -1.</_>
                <_>
                  3 24 16 5 2.</_>
                <_>
                  19 29 16 5 2.</_></rects>
              <tilted>0</tilted></feature>
            <threshold>0.0167730897665024</threshold>
            <left_val>-0.0668983682990074</left_val>
            <right_val>0.5064548254013062</right_val></_></_>
        <_>
          <!-- tree 4 -->
          <_>
            <!-- root node -->
            <feature>
              <rects>
                <_>
                  18 10 4 12 -1.</_>
                <_>
                  18 10 2 6 2.</_>
                <_>
                  20 16 2 6 2.</_></rects>
              <tilted>0</tilted></feature>
            <threshold>3.8974059280008078e-03</threshold>
            <left_node>1</left_node>
            <right_val>0.4533363878726959</right_val></_>
          <_>
            <!-- node 1 -->
            <feature>
              <rects>
                <_>
                  19 12 2 8 -1.</_>
                <_>
                  19 12 1 4 2.</_>
                <_>
                  20 16 1 4 2.</_></rects>
              <tilted>0</tilted></feature>
            <threshold>-3.3650040859356523e-04</threshold>
            <left_val>0.2390055060386658</left_val>
            <right_val>-0.3637559115886688</right_val></_></_>
        <_>
          <!-- tree 5 -->
          <_>
            <!-- root node -->
            <feature>
              <rects>
                <_>
                  0 7 3 12 -1.</_>
                <_>
                  0 13 3 6 2.</_></rects>
              <tilted>0</tilted></feature>
            <threshold>-1.7012920579873025e-05</threshold>
            <left_node>1</left_node>
            <right_val>-0.3629738092422485</right_val></_>
          <_>
            <!-- node 1 -->
            <feature>
              <rects>
                <_>
                  0 10 2 6 -1.</_>
                <_>
                  0 13 2 3 2.</_></rects>
              <tilted>0</tilted></feature>
            <threshold>-5.7014258345589042e-04</threshold>
            <left_val>-0.2213387936353683</left_val>
            <right_val>0.4109089970588684</right_val></_></_>
        <_>
          <!-- tree 6 -->
          <_>
            <!-- root node -->
            <feature>
              <rects>
                <_>
                  19 23 3 5 -1.</_>
                <_>
                  20 23 1 5 3.</_></rects>
              <tilted>0</tilted></feature>
            <threshold>-1.4422290259972215e-03</threshold>
            <left_val>-0.7081968784332275</left_val>
            <right_node>1</right_node></_>
          <_>
            <!-- node 1 -->
            <feature>
              <rects>
                <_>
                  28 20 6 7 -1.</_>
                <_>
                  30 22 2 7 3.</_></rects>
              <tilted>1</tilted></feature>
            <threshold>8.5640382021665573e-03</threshold>
            <left_val>-0.0413635782897472</left_val>
            <right_val>0.4866828918457031</right_val></_></_>
        <_>
          <!-- tree 7 -->
          <_>
            <!-- root node -->
            <feature>
              <rects>
                <_>
                  31 13 4 18 -1.</_>
                <_>
                  32 14 2 18 2.</_></rects>
              <tilted>1</tilted></feature>
            <threshold>5.0552091561257839e-03</threshold>
            <left_node>1</left_node>
            <right_val>0.3969241976737976</right_val></_>
          <_>
            <!-- node 1 -->
            <feature>
              <rects>
                <_>
                  22 11 6 10 -1.</_>
                <_>
                  22 11 3 5 2.</_>
                <_>
                  25 16 3 5 2.</_></rects>
              <tilted>0</tilted></feature>
            <threshold>-3.8379640318453312e-03</threshold>
            <left_val>0.2913722097873688</left_val>
            <right_val>-0.3295480012893677</right_val></_></_>
        <_>
          <!-- tree 8 -->
          <_>
            <!-- root node -->
            <feature>
              <rects>
                <_>
                  31 32 3 3 -1.</_>
                <_>
                  32 32 1 3 3.</_></rects>
              <tilted>0</tilted></feature>
            <threshold>-2.3402379883918911e-04</threshold>
            <left_val>-0.4985966086387634</left_val>
            <right_node>1</right_node></_>
          <_>
            <!-- node 1 -->
            <feature>
              <rects>
                <_>
                  30 33 4 2 -1.</_>
                <_>
                  31 33 2 2 2.</_></rects>
              <tilted>0</tilted></feature>
            <threshold>1.5745949349366128e-04</threshold>
            <left_val>0.2994163036346436</left_val>
            <right_val>-0.3167259991168976</right_val></_></_>
        <_>
          <!-- tree 9 -->
          <_>
            <!-- root node -->
            <feature>
              <rects>
                <_>
                  23 13 12 19 -1.</_>
                <_>
                  29 13 6 19 2.</_></rects>
              <tilted>0</tilted></feature>
            <threshold>0.0119546595960855</threshold>
            <left_val>-0.3156957030296326</left_val>
            <right_node>1</right_node></_>
          <_>
            <!-- node 1 -->
            <feature>
              <rects>
                <_>
                  23 27 1 2 -1.</_>
                <_>
                  23 28 1 1 2.</_></rects>
              <tilted>0</tilted></feature>
            <threshold>-1.5614459698554128e-05</threshold>
            <left_val>0.4475528895854950</left_val>
            <right_val>-0.1054475978016853</right_val></_></_>
        <_>
          <!-- tree 10 -->
          <_>
            <!-- root node -->
            <feature>
              <rects>
                <_>
                  8 17 9 2 -1.</_>
                <_>
                  8 18 9 1 2.</_></rects>
              <tilted>0</tilted></feature>
            <threshold>-5.8011751389130950e-04</threshold>
            <left_val>0.2812883853912354</left_val>
            <right_node>1</right_node></_>
          <_>
            <!-- node 1 -->
            <feature>
              <rects>
                <_>
                  16 14 2 6 -1.</_>
                <_>
                  16 17 2 3 2.</_></rects>
              <tilted>0</tilted></feature>
            <threshold>1.0714229429140687e-03</threshold>
            <left_val>-0.4128726124763489</left_val>
            <right_val>0.2879143059253693</right_val></_></_>
        <_>
          <!-- tree 11 -->
          <_>
            <!-- root node -->
            <feature>
              <rects>
                <_>
                  4 32 22 3 -1.</_>
                <_>
                  15 32 11 3 2.</_></rects>
              <tilted>0</tilted></feature>
            <threshold>0.0408840402960777</threshold>
            <left_node>1</left_node>
            <right_val>0.5275784730911255</right_val></_>
          <_>
            <!-- node 1 -->
            <feature>
              <rects>
                <_>
                  13 27 6 8 -1.</_>
                <_>
                  13 31 6 4 2.</_></rects>
              <tilted>0</tilted></feature>
            <threshold>-5.5454690009355545e-03</threshold>
            <left_val>0.2306738942861557</left_val>
            <right_val>-0.2839883863925934</right_val></_></_>
        <_>
          <!-- tree 12 -->
          <_>
            <!-- root node -->
            <feature>
              <rects>
                <_>
                  24 0 4 6 -1.</_>
                <_>
                  24 0 4 3 2.</_></rects>
              <tilted>1</tilted></feature>
            <threshold>0.0117081198841333</threshold>
            <left_node>1</left_node>
            <right_val>0.3636071979999542</right_val></_>
          <_>
            <!-- node 1 -->
            <feature>
              <rects>
                <_>
                  9 3 24 3 -1.</_>
                <_>
                  9 4 24 1 3.</_></rects>
              <tilted>0</tilted></feature>
            <threshold>6.3266679644584656e-03</threshold>
            <left_val>-0.2568575143814087</left_val>
            <right_val>0.4932214915752411</right_val></_></_>
        <_>
          <!-- tree 13 -->
          <_>
            <!-- root node -->
            <feature>
              <rects>
                <_>
                  21 9 12 3 -1.</_>
                <_>
                  24 9 6 3 2.</_></rects>
              <tilted>0</tilted></feature>
            <threshold>-5.3963209502398968e-03</threshold>
            <left_val>0.4025011062622070</left_val>
            <right_node>1</right_node></_>
          <_>
            <!-- node 1 -->
            <feature>
              <rects>
                <_>
                  26 8 9 19 -1.</_>
                <_>
                  29 8 3 19 3.</_></rects>
              <tilted>0</tilted></feature>
            <threshold>-0.0170370694249868</threshold>
            <left_val>0.3679859042167664</left_val>
            <right_val>-0.2524225115776062</right_val></_></_></trees>
      <stage_threshold>-1.7116169929504395</stage_threshold>
      <parent>3</parent>
      <next>-1</next></_>
    <_>
      <!-- stage 5 -->
      <trees>
        <_>
          <!-- tree 0 -->
          <_>
            <!-- root node -->
            <feature>
              <rects>
                <_>
                  0 12 18 23 -1.</_>
                <_>
                  9 12 9 23 2.</_></rects>
              <tilted>0</tilted></feature>
            <threshold>-0.1376716941595078</threshold>
            <left_node>1</left_node>
            <right_val>-0.4537293016910553</right_val></_>
          <_>
            <!-- node 1 -->
            <feature>
              <rects>
                <_>
                  9 31 26 4 -1.</_>
                <_>
                  22 31 13 4 2.</_></rects>
              <tilted>0</tilted></feature>
            <threshold>0.0410344600677490</threshold>
            <left_val>-0.1450009047985077</left_val>
            <right_val>0.7444065809249878</right_val></_></_>
        <_>
          <!-- tree 1 -->
          <_>
            <!-- root node -->
            <feature>
              <rects>
                <_>
                  13 0 14 8 -1.</_>
                <_>
                  13 0 7 8 2.</_></rects>
              <tilted>1</tilted></feature>
            <threshold>0.0429765395820141</threshold>
            <left_val>-0.4148257076740265</left_val>
            <right_node>1</right_node></_>
          <_>
            <!-- node 1 -->
            <feature>
              <rects>
                <_>
                  26 15 9 9 -1.</_>
                <_>
                  29 18 3 9 3.</_></rects>
              <tilted>1</tilted></feature>
            <threshold>-0.0326181612908840</threshold>
            <left_val>0.7616077065467834</left_val>
            <right_val>0.0789111033082008</right_val></_></_>
        <_>
          <!-- tree 2 -->
          <_>
            <!-- root node -->
            <feature>
              <rects>
                <_>
                  1 23 6 12 -1.</_>
                <_>
                  1 29 6 6 2.</_></rects>
              <tilted>0</tilted></feature>
            <threshold>-1.8576849834062159e-04</threshold>
            <left_node>1</left_node>
            <right_val>-0.4481301009654999</right_val></_>
          <_>
            <!-- node 1 -->
            <feature>
              <rects>
                <_>
                  24 12 10 15 -1.</_>
                <_>
                  29 12 5 15 2.</_></rects>
              <tilted>0</tilted></feature>
            <threshold>0.0200906693935394</threshold>
            <left_val>-0.0988824218511581</left_val>
            <right_val>0.3921549022197723</right_val></_></_>
        <_>
          <!-- tree 3 -->
          <_>
            <!-- root node -->
            <feature>
              <rects>
                <_>
                  7 33 22 2 -1.</_>
                <_>
                  18 33 11 2 2.</_></rects>
              <tilted>0</tilted></feature>
            <threshold>0.0236292798072100</threshold>
            <left_node>1</left_node>
            <right_val>0.4003044962882996</right_val></_>
          <_>
            <!-- node 1 -->
            <feature>
              <rects>
                <_>
                  18 24 7 6 -1.</_>
                <_>
                  18 27 7 3 2.</_></rects>
              <tilted>0</tilted></feature>
            <threshold>-3.3455560915172100e-03</threshold>
            <left_val>0.1772678941488266</left_val>
            <right_val>-0.3457998931407928</right_val></_></_>
        <_>
          <!-- tree 4 -->
          <_>
            <!-- root node -->
            <feature>
              <rects>
                <_>
                  19 0 4 10 -1.</_>
                <_>
                  19 5 4 5 2.</_></rects>
              <tilted>0</tilted></feature>
            <threshold>-6.0686049982905388e-03</threshold>
            <left_val>0.2437500059604645</left_val>
            <right_node>1</right_node></_>
          <_>
            <!-- node 1 -->
            <feature>
              <rects>
                <_>
                  6 13 6 10 -1.</_>
                <_>
                  6 18 6 5 2.</_></rects>
              <tilted>0</tilted></feature>
            <threshold>-7.8113130293786526e-03</threshold>
            <left_val>0.0564241409301758</left_val>
            <right_val>-0.5186331868171692</right_val></_></_>
        <_>
          <!-- tree 5 -->
          <_>
            <!-- root node -->
            <feature>
              <rects>
                <_>
                  27 19 6 10 -1.</_>
                <_>
                  29 21 2 10 3.</_></rects>
              <tilted>1</tilted></feature>
            <threshold>0.0137499002739787</threshold>
            <left_node>1</left_node>
            <right_val>0.4070231020450592</right_val></_>
          <_>
            <!-- node 1 -->
            <feature>
              <rects>
                <_>
                  23 24 2 2 -1.</_>
                <_>
                  23 25 2 1 2.</_></rects>
              <tilted>0</tilted></feature>
            <threshold>-9.7152762464247644e-05</threshold>
            <left_val>0.1897192001342773</left_val>
            <right_val>-0.3216913938522339</right_val></_></_>
        <_>
          <!-- tree 6 -->
          <_>
            <!-- root node -->
            <feature>
              <rects>
                <_>
                  1 0 29 32 -1.</_>
                <_>
                  1 16 29 16 2.</_></rects>
              <tilted>0</tilted></feature>
            <threshold>-0.1161644980311394</threshold>
            <left_node>1</left_node>
            <right_val>-0.3121030926704407</right_val></_>
          <_>
            <!-- node 1 -->
            <feature>
              <rects>
                <_>
                  0 3 1 4 -1.</_>
                <_>
                  0 5 1 2 2.</_></rects>
              <tilted>0</tilted></feature>
            <threshold>-1.6631250036880374e-04</threshold>
            <left_val>-0.3806994855403900</left_val>
            <right_val>0.2733643054962158</right_val></_></_>
        <_>
          <!-- tree 7 -->
          <_>
            <!-- root node -->
            <feature>
              <rects>
                <_>
                  26 5 2 11 -1.</_>
                <_>
                  27 5 1 11 2.</_></rects>
              <tilted>0</tilted></feature>
            <threshold>1.4446859713643789e-03</threshold>
            <left_node>1</left_node>
            <right_val>0.3448514044284821</right_val></_>
          <_>
            <!-- node 1 -->
            <feature>
              <rects>
                <_>
                  22 6 6 6 -1.</_>
                <_>
                  24 6 2 6 3.</_></rects>
              <tilted>0</tilted></feature>
            <threshold>3.8694681134074926e-03</threshold>
            <left_val>-0.3142535090446472</left_val>
            <right_val>0.3238033056259155</right_val></_></_>
        <_>
          <!-- tree 8 -->
          <_>
            <!-- root node -->
            <feature>
              <rects>
                <_>
                  19 6 6 7 -1.</_>
                <_>
                  21 6 2 7 3.</_></rects>
              <tilted>0</tilted></feature>
            <threshold>5.6580379605293274e-03</threshold>
            <left_node>1</left_node>
            <right_val>0.4513682126998901</right_val></_>
          <_>
            <!-- node 1 -->
            <feature>
              <rects>
                <_>
                  17 10 4 1 -1.</_>
                <_>
                  18 10 2 1 2.</_></rects>
              <tilted>0</tilted></feature>
            <threshold>2.6522218831814826e-04</threshold>
            <left_val>-0.2292895019054413</left_val>
            <right_val>0.3173209130764008</right_val></_></_>
        <_>
          <!-- tree 9 -->
          <_>
            <!-- root node -->
            <feature>
              <rects>
                <_>
                  15 0 20 1 -1.</_>
                <_>
                  25 0 10 1 2.</_></rects>
              <tilted>0</tilted></feature>
            <threshold>2.2653760388493538e-03</threshold>
            <left_node>1</left_node>
            <right_val>-0.3744595944881439</right_val></_>
          <_>
            <!-- node 1 -->
            <feature>
              <rects>
                <_>
                  25 0 10 2 -1.</_>
                <_>
                  30 0 5 2 2.</_></rects>
              <tilted>0</tilted></feature>
            <threshold>-1.5626100357621908e-03</threshold>
            <left_val>-0.3075417876243591</left_val>
            <right_val>0.2587566077709198</right_val></_></_>
        <_>
          <!-- tree 10 -->
          <_>
            <!-- root node -->
            <feature>
              <rects>
                <_>
                  24 10 6 11 -1.</_>
                <_>
                  26 12 2 11 3.</_></rects>
              <tilted>1</tilted></feature>
            <threshold>8.2971761003136635e-03</threshold>
            <left_node>1</left_node>
            <right_val>0.3507784903049469</right_val></_>
          <_>
            <!-- node 1 -->
            <feature>
              <rects>
                <_>
                  14 29 4 6 -1.</_>
                <_>
                  14 32 4 3 2.</_></rects>
              <tilted>0</tilted></feature>
            <threshold>-4.1467081755399704e-03</threshold>
            <left_val>0.2728756070137024</left_val>
            <right_val>-0.2718979120254517</right_val></_></_>
        <_>
          <!-- tree 11 -->
          <_>
            <!-- root node -->
            <feature>
              <rects>
                <_>
                  7 20 11 4 -1.</_>
                <_>
                  7 22 11 2 2.</_></rects>
              <tilted>0</tilted></feature>
            <threshold>-2.2127130068838596e-03</threshold>
            <left_val>0.2532118856906891</left_val>
            <right_node>1</right_node></_>
          <_>
            <!-- node 1 -->
            <feature>
              <rects>
                <_>
                  5 22 12 2 -1.</_>
                <_>
                  5 22 6 1 2.</_>
                <_>
                  11 23 6 1 2.</_></rects>
              <tilted>0</tilted></feature>
            <threshold>2.5618090876378119e-04</threshold>
            <left_val>-0.4224522113800049</left_val>
            <right_val>0.1028511971235275</right_val></_></_>
        <_>
          <!-- tree 12 -->
          <_>
            <!-- root node -->
            <feature>
              <rects>
                <_>
                  0 0 14 34 -1.</_>
                <_>
                  7 0 7 34 2.</_></rects>
              <tilted>0</tilted></feature>
            <threshold>-0.0780401304364204</threshold>
            <left_val>0.2044077068567276</left_val>
            <right_node>1</right_node></_>
          <_>
            <!-- node 1 -->
            <feature>
              <rects>
                <_>
                  3 17 8 11 -1.</_>
                <_>
                  7 17 4 11 2.</_></rects>
              <tilted>0</tilted></feature>
            <threshold>0.0146487001329660</threshold>
            <left_val>-0.3559749126434326</left_val>
            <right_val>0.4549053013324738</right_val></_></_>
        <_>
          <!-- tree 13 -->
          <_>
            <!-- root node -->
            <feature>
              <rects>
                <_>
                  20 22 1 4 -1.</_>
                <_>
                  19 23 1 2 2.</_></rects>
              <tilted>1</tilted></feature>
            <threshold>1.1361120268702507e-03</threshold>
            <left_node>1</left_node>
            <right_val>-0.5830972790718079</right_val></_>
          <_>
            <!-- node 1 -->
            <feature>
              <rects>
                <_>
                  15 24 3 7 -1.</_>
                <_>
                  16 24 1 7 3.</_></rects>
              <tilted>0</tilted></feature>
            <threshold>1.3559480430558324e-03</threshold>
            <left_val>0.1413892954587936</left_val>
            <right_val>-0.6329206824302673</right_val></_></_>
        <_>
          <!-- tree 14 -->
          <_>
            <!-- root node -->
            <feature>
              <rects>
                <_>
                  27 31 6 4 -1.</_>
                <_>
                  27 33 6 2 2.</_></rects>
              <tilted>0</tilted></feature>
            <threshold>-6.9645520852645859e-06</threshold>
            <left_node>1</left_node>
            <right_val>-0.2374456971883774</right_val></_>
          <_>
            <!-- node 1 -->
            <feature>
              <rects>
                <_>
                  33 26 2 2 -1.</_>
                <_>
                  34 26 1 2 2.</_></rects>
              <tilted>0</tilted></feature>
            <threshold>-1.8442860164213926e-04</threshold>
            <left_val>-0.3761627972126007</left_val>
            <right_val>0.2807554900646210</right_val></_></_>
        <_>
          <!-- tree 15 -->
          <_>
            <!-- root node -->
            <feature>
              <rects>
                <_>
                  18 13 14 2 -1.</_>
                <_>
                  18 14 14 1 2.</_></rects>
              <tilted>0</tilted></feature>
            <threshold>-8.4633869118988514e-04</threshold>
            <left_val>0.2578127086162567</left_val>
            <right_node>1</right_node></_>
          <_>
            <!-- node 1 -->
            <feature>
              <rects>
                <_>
                  9 18 6 2 -1.</_>
                <_>
                  9 19 6 1 2.</_></rects>
              <tilted>0</tilted></feature>
            <threshold>-3.5515139461494982e-04</threshold>
            <left_val>0.1157246977090836</left_val>
            <right_val>-0.3548800051212311</right_val></_></_>
        <_>
          <!-- tree 16 -->
          <_>
            <!-- root node -->
            <feature>
              <rects>
                <_>
                  29 2 4 8 -1.</_>
                <_>
                  29 2 4 4 2.</_></rects>
              <tilted>1</tilted></feature>
            <threshold>0.0222115907818079</threshold>
            <left_node>1</left_node>
            <right_val>0.3144089877605438</right_val></_>
          <_>
            <!-- node 1 -->
            <feature>
              <rects>
                <_>
                  28 0 7 6 -1.</_>
                <_>
                  26 2 7 2 3.</_></rects>
              <tilted>1</tilted></feature>
            <threshold>-0.0141588095575571</threshold>
            <left_val>0.4070287942886353</left_val>
            <right_val>-0.2275121062994003</right_val></_></_>
        <_>
          <!-- tree 17 -->
          <_>
            <!-- root node -->
            <feature>
              <rects>
                <_>
                  21 1 2 19 -1.</_>
                <_>
                  22 1 1 19 2.</_></rects>
              <tilted>0</tilted></feature>
            <threshold>6.7934219259768724e-04</threshold>
            <left_node>1</left_node>
            <right_val>0.2489978969097137</right_val></_>
          <_>
            <!-- node 1 -->
            <feature>
              <rects>
                <_>
                  19 1 3 20 -1.</_>
                <_>
                  20 1 1 20 3.</_></rects>
              <tilted>0</tilted></feature>
            <threshold>7.8087649308145046e-04</threshold>
            <left_val>-0.4409590959548950</left_val>
            <right_val>0.1481740027666092</right_val></_></_>
        <_>
          <!-- tree 18 -->
          <_>
            <!-- root node -->
            <feature>
              <rects>
                <_>
                  0 0 21 1 -1.</_>
                <_>
                  7 0 7 1 3.</_></rects>
              <tilted>0</tilted></feature>
            <threshold>-6.1369640752673149e-04</threshold>
            <left_node>1</left_node>
            <right_val>0.1404317021369934</right_val></_>
          <_>
            <!-- node 1 -->
            <feature>
              <rects>
                <_>
                  16 0 6 10 -1.</_>
                <_>
                  16 0 3 10 2.</_></rects>
              <tilted>1</tilted></feature>
            <threshold>-0.0115120597183704</threshold>
            <left_val>0.3933567106723785</left_val>
            <right_val>-0.5365374088287354</right_val></_></_></trees>
      <stage_threshold>-1.6633139848709106</stage_threshold>
      <parent>4</parent>
      <next>-1</next></_>
    <_>
      <!-- stage 6 -->
      <trees>
        <_>
          <!-- tree 0 -->
          <_>
            <!-- root node -->
            <feature>
              <rects>
                <_>
                  0 29 33 6 -1.</_>
                <_>
                  11 29 11 6 3.</_></rects>
              <tilted>0</tilted></feature>
            <threshold>-0.1142070963978767</threshold>
            <left_val>0.5120012164115906</left_val>
            <right_node>1</right_node></_>
          <_>
            <!-- node 1 -->
            <feature>
              <rects>
                <_>
                  3 34 26 1 -1.</_>
                <_>
                  16 34 13 1 2.</_></rects>
              <tilted>0</tilted></feature>
            <threshold>0.0152694704011083</threshold>
            <left_val>-0.4905692040920258</left_val>
            <right_val>0.2842352986335754</right_val></_></_>
        <_>
          <!-- tree 1 -->
          <_>
            <!-- root node -->
            <feature>
              <rects>
                <_>
                  18 0 8 15 -1.</_>
                <_>
                  18 0 4 15 2.</_></rects>
              <tilted>1</tilted></feature>
            <threshold>0.0769453495740891</threshold>
            <left_node>1</left_node>
            <right_val>0.3845868110656738</right_val></_>
          <_>
            <!-- node 1 -->
            <feature>
              <rects>
                <_>
                  11 0 17 6 -1.</_>
                <_>
                  11 3 17 3 2.</_></rects>
              <tilted>0</tilted></feature>
            <threshold>-0.0237301699817181</threshold>
            <left_val>0.3103944063186646</left_val>
            <right_val>-0.3433705866336823</right_val></_></_>
        <_>
          <!-- tree 2 -->
          <_>
            <!-- root node -->
            <feature>
              <rects>
                <_>
                  26 15 8 9 -1.</_>
                <_>
                  28 17 4 9 2.</_></rects>
              <tilted>1</tilted></feature>
            <threshold>-0.0234294198453426</threshold>
            <left_val>0.4938732981681824</left_val>
            <right_node>1</right_node></_>
          <_>
            <!-- node 1 -->
            <feature>
              <rects>
                <_>
                  25 8 8 8 -1.</_>
                <_>
                  29 8 4 8 2.</_></rects>
              <tilted>0</tilted></feature>
            <threshold>8.3710197359323502e-03</threshold>
            <left_val>-0.3623577952384949</left_val>
            <right_val>0.1313353031873703</right_val></_></_>
        <_>
          <!-- tree 3 -->
          <_>
            <!-- root node -->
            <feature>
              <rects>
                <_>
                  0 23 2 4 -1.</_>
                <_>
                  0 23 1 2 2.</_>
                <_>
                  1 25 1 2 2.</_></rects>
              <tilted>0</tilted></feature>
            <threshold>2.1233530424069613e-04</threshold>
            <left_node>1</left_node>
            <right_val>-0.5765330791473389</right_val></_>
          <_>
            <!-- node 1 -->
            <feature>
              <rects>
                <_>
                  0 23 2 4 -1.</_>
                <_>
                  0 23 1 2 2.</_>
                <_>
                  1 25 1 2 2.</_></rects>
              <tilted>0</tilted></feature>
            <threshold>-1.5340029494836926e-04</threshold>
            <left_val>-0.4602836072444916</left_val>
            <right_val>0.2330936044454575</right_val></_></_>
        <_>
          <!-- tree 4 -->
          <_>
            <!-- root node -->
            <feature>
              <rects>
                <_>
                  14 10 3 10 -1.</_>
                <_>
                  14 15 3 5 2.</_></rects>
              <tilted>0</tilted></feature>
            <threshold>-8.0520361661911011e-03</threshold>
            <left_val>0.3085797131061554</left_val>
            <right_node>1</right_node></_>
          <_>
            <!-- node 1 -->
            <feature>
              <rects>
                <_>
                  0 3 3 10 -1.</_>
                <_>
                  0 8 3 5 2.</_></rects>
              <tilted>0</tilted></feature>
            <threshold>-1.4151110008242540e-05</threshold>
            <left_val>0.0485665388405323</left_val>
            <right_val>-0.5234255790710449</right_val></_></_>
        <_>
          <!-- tree 5 -->
          <_>
            <!-- root node -->
            <feature>
              <rects>
                <_>
                  29 33 4 2 -1.</_>
                <_>
                  31 33 2 2 2.</_></rects>
              <tilted>0</tilted></feature>
            <threshold>1.7348460096400231e-04</threshold>
            <left_node>1</left_node>
            <right_val>-0.3314155936241150</right_val></_>
          <_>
            <!-- node 1 -->
            <feature>
              <rects>
                <_>
                  29 33 4 2 -1.</_>
                <_>
                  31 33 2 2 2.</_></rects>
              <tilted>0</tilted></feature>
            <threshold>-3.8542918628081679e-04</threshold>
            <left_val>-0.3887743949890137</left_val>
            <right_val>0.3354999125003815</right_val></_></_>
        <_>
          <!-- tree 6 -->
          <_>
            <!-- root node -->
            <feature>
              <rects>
                <_>
                  3 3 32 3 -1.</_>
                <_>
                  3 4 32 1 3.</_></rects>
              <tilted>0</tilted></feature>
            <threshold>4.6927551738917828e-03</threshold>
            <left_node>1</left_node>
            <right_val>0.4339804053306580</right_val></_>
          <_>
            <!-- node 1 -->
            <feature>
              <rects>
                <_>
                  26 3 9 3 -1.</_>
                <_>
                  26 4 9 1 3.</_></rects>
              <tilted>0</tilted></feature>
            <threshold>-7.4697770178318024e-03</threshold>
            <left_val>0.7048851251602173</left_val>
            <right_val>-0.1842897981405258</right_val></_></_>
        <_>
          <!-- tree 7 -->
          <_>
            <!-- root node -->
            <feature>
              <rects>
                <_>
                  24 23 2 10 -1.</_>
                <_>
                  24 23 1 10 2.</_></rects>
              <tilted>1</tilted></feature>
            <threshold>1.3775590341538191e-03</threshold>
            <left_node>1</left_node>
            <right_val>0.3128154873847961</right_val></_>
          <_>
            <!-- node 1 -->
            <feature>
              <rects>
                <_>
                  16 25 8 5 -1.</_>
                <_>
                  20 25 4 5 2.</_></rects>
              <tilted>0</tilted></feature>
            <threshold>1.8312969477847219e-03</threshold>
            <left_val>-0.5130695104598999</left_val>
            <right_val>0.0549742989242077</right_val></_></_>
        <_>
          <!-- tree 8 -->
          <_>
            <!-- root node -->
            <feature>
              <rects>
                <_>
                  18 25 3 3 -1.</_>
                <_>
                  19 26 1 1 9.</_></rects>
              <tilted>0</tilted></feature>
            <threshold>-1.0822829790413380e-03</threshold>
            <left_val>-0.4834102988243103</left_val>
            <right_node>1</right_node></_>
          <_>
            <!-- node 1 -->
            <feature>
              <rects>
                <_>
                  21 24 1 3 -1.</_>
                <_>
                  20 25 1 1 3.</_></rects>
              <tilted>1</tilted></feature>
            <threshold>9.7437552176415920e-04</threshold>
            <left_val>0.1512960046529770</left_val>
            <right_val>-0.5941568017005920</right_val></_></_>
        <_>
          <!-- tree 9 -->
          <_>
            <!-- root node -->
            <feature>
              <rects>
                <_>
                  0 25 12 10 -1.</_>
                <_>
                  3 25 6 10 2.</_></rects>
              <tilted>0</tilted></feature>
            <threshold>-0.0163768995553255</threshold>
            <left_val>0.4198271930217743</left_val>
            <right_node>1</right_node></_>
          <_>
            <!-- node 1 -->
            <feature>
              <rects>
                <_>
                  5 21 10 3 -1.</_>
                <_>
                  10 21 5 3 2.</_></rects>
              <tilted>0</tilted></feature>
            <threshold>-7.6597700826823711e-03</threshold>
            <left_val>0.1480392962694168</left_val>
            <right_val>-0.3704119920730591</right_val></_></_>
        <_>
          <!-- tree 10 -->
          <_>
            <!-- root node -->
            <feature>
              <rects>
                <_>
                  0 18 2 10 -1.</_>
                <_>
                  0 23 2 5 2.</_></rects>
              <tilted>0</tilted></feature>
            <threshold>-4.1579471144359559e-05</threshold>
            <left_node>1</left_node>
            <right_val>-0.2925460040569305</right_val></_>
          <_>
            <!-- node 1 -->
            <feature>
              <rects>
                <_>
                  33 20 2 8 -1.</_>
                <_>
                  33 24 2 4 2.</_></rects>
              <tilted>0</tilted></feature>
            <threshold>-1.5020729733805638e-05</threshold>
            <left_val>0.3405691981315613</left_val>
            <right_val>-0.1759641021490097</right_val></_></_>
        <_>
          <!-- tree 11 -->
          <_>
            <!-- root node -->
            <feature>
              <rects>
                <_>
                  19 25 1 2 -1.</_>
                <_>
                  19 26 1 1 2.</_></rects>
              <tilted>0</tilted></feature>
            <threshold>-2.4107939680106938e-05</threshold>
            <left_val>0.2199507057666779</left_val>
            <right_node>1</right_node></_>
          <_>
            <!-- node 1 -->
            <feature>
              <rects>
                <_>
                  14 19 9 9 -1.</_>
                <_>
                  14 22 9 3 3.</_></rects>
              <tilted>0</tilted></feature>
            <threshold>-5.1908059976994991e-03</threshold>
            <left_val>0.2191271930932999</left_val>
            <right_val>-0.4998272061347961</right_val></_></_>
        <_>
          <!-- tree 12 -->
          <_>
            <!-- root node -->
            <feature>
              <rects>
                <_>
                  0 10 1 16 -1.</_>
                <_>
                  0 14 1 8 2.</_></rects>
              <tilted>0</tilted></feature>
            <threshold>2.5162359816022217e-04</threshold>
            <left_node>1</left_node>
            <right_val>-0.2845714092254639</right_val></_>
          <_>
            <!-- node 1 -->
            <feature>
              <rects>
                <_>
                  3 11 14 8 -1.</_>
                <_>
                  3 11 7 4 2.</_>
                <_>
                  10 15 7 4 2.</_></rects>
              <tilted>0</tilted></feature>
            <threshold>4.3995808809995651e-03</threshold>
            <left_val>-0.0261656399816275</left_val>
            <right_val>0.4761579036712646</right_val></_></_>
        <_>
          <!-- tree 13 -->
          <_>
            <!-- root node -->
            <feature>
              <rects>
                <_>
                  19 9 4 2 -1.</_>
                <_>
                  19 9 2 2 2.</_></rects>
              <tilted>1</tilted></feature>
            <threshold>1.9513639854267240e-03</threshold>
            <left_node>1</left_node>
            <right_val>0.2645834088325500</right_val></_>
          <_>
            <!-- node 1 -->
            <feature>
              <rects>
                <_>
                  18 8 6 10 -1.</_>
                <_>
                  20 8 2 10 3.</_></rects>
              <tilted>0</tilted></feature>
            <threshold>7.0960381999611855e-03</threshold>
            <left_val>-0.3016546070575714</left_val>
            <right_val>0.2711842060089111</right_val></_></_>
        <_>
          <!-- tree 14 -->
          <_>
            <!-- root node -->
            <feature>
              <rects>
                <_>
                  9 18 4 4 -1.</_>
                <_>
                  9 18 2 2 2.</_>
                <_>
                  11 20 2 2 2.</_></rects>
              <tilted>0</tilted></feature>
            <threshold>2.0880690135527402e-04</threshold>
            <left_node>1</left_node>
            <right_val>0.2371826022863388</right_val></_>
          <_>
            <!-- node 1 -->
            <feature>
              <rects>
                <_>
                  26 7 9 9 -1.</_>
                <_>
                  29 10 3 3 9.</_></rects>
              <tilted>0</tilted></feature>
            <threshold>-0.0483828298747540</threshold>
            <left_val>0.6187695860862732</left_val>
            <right_val>-0.2414624989032745</right_val></_></_>
        <_>
          <!-- tree 15 -->
          <_>
            <!-- root node -->
            <feature>
              <rects>
                <_>
                  23 0 4 1 -1.</_>
                <_>
                  25 0 2 1 2.</_></rects>
              <tilted>0</tilted></feature>
            <threshold>-2.2289069602265954e-04</threshold>
            <left_val>-0.3677187860012054</left_val>
            <right_node>1</right_node></_>
          <_>
            <!-- node 1 -->
            <feature>
              <rects>
                <_>
                  22 0 6 1 -1.</_>
                <_>
                  25 0 3 1 2.</_></rects>
              <tilted>0</tilted></feature>
            <threshold>3.4612900344654918e-04</threshold>
            <left_val>0.2708432972431183</left_val>
            <right_val>-0.2527019977569580</right_val></_></_>
        <_>
          <!-- tree 16 -->
          <_>
            <!-- root node -->
            <feature>
              <rects>
                <_>
                  1 0 34 1 -1.</_>
                <_>
                  1 0 17 1 2.</_></rects>
              <tilted>1</tilted></feature>
            <threshold>0.0530239306390285</threshold>
            <left_node>1</left_node>
            <right_val>-0.8586797118186951</right_val></_>
          <_>
            <!-- node 1 -->
            <feature>
              <rects>
                <_>
                  14 24 3 2 -1.</_>
                <_>
                  15 24 1 2 3.</_></rects>
              <tilted>0</tilted></feature>
            <threshold>7.0802401751279831e-04</threshold>
            <left_val>0.1174027025699615</left_val>
            <right_val>-0.6267080903053284</right_val></_></_>
        <_>
          <!-- tree 17 -->
          <_>
            <!-- root node -->
            <feature>
              <rects>
                <_>
                  22 23 1 3 -1.</_>
                <_>
                  21 24 1 1 3.</_></rects>
              <tilted>1</tilted></feature>
            <threshold>6.3071702606976032e-04</threshold>
            <left_node>1</left_node>
            <right_val>-0.4866015911102295</right_val></_>
          <_>
            <!-- node 1 -->
            <feature>
              <rects>
                <_>
                  1 6 2 4 -1.</_>
                <_>
                  1 6 1 2 2.</_>
                <_>
                  2 8 1 2 2.</_></rects>
              <tilted>0</tilted></feature>
            <threshold>2.0921840041410178e-04</threshold>
            <left_val>0.1423874050378799</left_val>
            <right_val>-0.4514971971511841</right_val></_></_></trees>
      <stage_threshold>-1.5890129804611206</stage_threshold>
      <parent>5</parent>
      <next>-1</next></_>
    <_>
      <!-- stage 7 -->
      <trees>
        <_>
          <!-- tree 0 -->
          <_>
            <!-- root node -->
            <feature>
              <rects>
                <_>
                  0 33 30 2 -1.</_>
                <_>
                  10 33 10 2 3.</_></rects>
              <tilted>0</tilted></feature>
            <threshold>-0.0354526601731777</threshold>
            <left_node>1</left_node>
            <right_val>-0.2980838119983673</right_val></_>
          <_>
            <!-- node 1 -->
            <feature>
              <rects>
                <_>
                  29 32 6 2 -1.</_>
                <_>
                  32 32 3 2 2.</_></rects>
              <tilted>0</tilted></feature>
            <threshold>3.3368531148880720e-04</threshold>
            <left_val>0.6339309215545654</left_val>
            <right_val>-0.2872219085693359</right_val></_></_>
        <_>
          <!-- tree 1 -->
          <_>
            <!-- root node -->
            <feature>
              <rects>
                <_>
                  23 20 12 1 -1.</_>
                <_>
                  23 20 6 1 2.</_></rects>
              <tilted>1</tilted></feature>
            <threshold>-4.5366180129349232e-03</threshold>
            <left_node>1</left_node>
            <right_val>-0.2741164863109589</right_val></_>
          <_>
            <!-- node 1 -->
            <feature>
              <rects>
                <_>
                  29 29 4 2 -1.</_>
                <_>
                  31 29 2 2 2.</_></rects>
              <tilted>0</tilted></feature>
            <threshold>2.1919740538578480e-04</threshold>
            <left_val>0.4513131976127625</left_val>
            <right_val>-0.2625265121459961</right_val></_></_>
        <_>
          <!-- tree 2 -->
          <_>
            <!-- root node -->
            <feature>
              <rects>
                <_>
                  2 8 14 18 -1.</_>
                <_>
                  9 8 7 18 2.</_></rects>
              <tilted>0</tilted></feature>
            <threshold>-0.0647501498460770</threshold>
            <left_node>1</left_node>
            <right_val>-0.2789469957351685</right_val></_>
          <_>
            <!-- node 1 -->
            <feature>
              <rects>
                <_>
                  25 7 10 20 -1.</_>
                <_>
                  30 7 5 20 2.</_></rects>
              <tilted>0</tilted></feature>
            <threshold>0.0242420006543398</threshold>
            <left_val>-0.0990485027432442</left_val>
            <right_val>0.4977863132953644</right_val></_></_>
        <_>
          <!-- tree 3 -->
          <_>
            <!-- root node -->
            <feature>
              <rects>
                <_>
                  0 0 8 6 -1.</_>
                <_>
                  0 0 4 3 2.</_>
                <_>
                  4 3 4 3 2.</_></rects>
              <tilted>0</tilted></feature>
            <threshold>-9.2688837321475148e-04</threshold>
            <left_val>-0.4307517111301422</left_val>
            <right_node>1</right_node></_>
          <_>
            <!-- node 1 -->
            <feature>
              <rects>
                <_>
                  0 0 8 6 -1.</_>
                <_>
                  0 0 4 3 2.</_>
                <_>
                  4 3 4 3 2.</_></rects>
              <tilted>0</tilted></feature>
            <threshold>6.3185620820149779e-04</threshold>
            <left_val>0.3047285079956055</left_val>
            <right_val>-0.2914266884326935</right_val></_></_>
        <_>
          <!-- tree 4 -->
          <_>
            <!-- root node -->
            <feature>
              <rects>
                <_>
                  19 3 16 4 -1.</_>
                <_>
                  19 4 16 2 2.</_></rects>
              <tilted>0</tilted></feature>
            <threshold>-4.8505468294024467e-03</threshold>
            <left_val>0.5768722891807556</left_val>
            <right_node>1</right_node></_>
          <_>
            <!-- node 1 -->
            <feature>
              <rects>
                <_>
                  20 2 12 3 -1.</_>
                <_>
                  20 3 12 1 3.</_></rects>
              <tilted>0</tilted></feature>
            <threshold>-4.9611530266702175e-03</threshold>
            <left_val>0.6696035861968994</left_val>
            <right_val>-0.2078132033348083</right_val></_></_>
        <_>
          <!-- tree 5 -->
          <_>
            <!-- root node -->
            <feature>
              <rects>
                <_>
                  19 26 1 2 -1.</_>
                <_>
                  19 27 1 1 2.</_></rects>
              <tilted>0</tilted></feature>
            <threshold>-1.5201970199996140e-05</threshold>
            <left_val>0.2417297959327698</left_val>
            <right_node>1</right_node></_>
          <_>
            <!-- node 1 -->
            <feature>
              <rects>
                <_>
                  32 8 1 26 -1.</_>
                <_>
                  32 8 1 13 2.</_></rects>
              <tilted>1</tilted></feature>
            <threshold>0.0107504902407527</threshold>
            <left_val>-0.5068147182464600</left_val>
            <right_val>0.0435260795056820</right_val></_></_>
        <_>
          <!-- tree 6 -->
          <_>
            <!-- root node -->
            <feature>
              <rects>
                <_>
                  7 1 28 3 -1.</_>
                <_>
                  7 2 28 1 3.</_></rects>
              <tilted>0</tilted></feature>
            <threshold>-6.8694748915731907e-03</threshold>
            <left_val>0.5911055803298950</left_val>
            <right_node>1</right_node></_>
          <_>
            <!-- node 1 -->
            <feature>
              <rects>
                <_>
                  6 0 23 6 -1.</_>
                <_>
                  6 2 23 2 3.</_></rects>
              <tilted>0</tilted></feature>
            <threshold>4.1940510272979736e-03</threshold>
            <left_val>-0.2643209993839264</left_val>
            <right_val>0.2280628979206085</right_val></_></_>
        <_>
          <!-- tree 7 -->
          <_>
            <!-- root node -->
            <feature>
              <rects>
                <_>
                  0 21 2 14 -1.</_>
                <_>
                  0 21 1 7 2.</_>
                <_>
                  1 28 1 7 2.</_></rects>
              <tilted>0</tilted></feature>
            <threshold>3.4515481092967093e-04</threshold>
            <left_node>1</left_node>
            <right_val>-0.4046001136302948</right_val></_>
          <_>
            <!-- node 1 -->
            <feature>
              <rects>
                <_>
                  0 23 1 10 -1.</_>
                <_>
                  0 28 1 5 2.</_></rects>
              <tilted>0</tilted></feature>
            <threshold>-1.2781009900209028e-05</threshold>
            <left_val>0.2635242938995361</left_val>
            <right_val>-0.2133367955684662</right_val></_></_>
        <_>
          <!-- tree 8 -->
          <_>
            <!-- root node -->
            <feature>
              <rects>
                <_>
                  12 0 22 1 -1.</_>
                <_>
                  23 0 11 1 2.</_></rects>
              <tilted>0</tilted></feature>
            <threshold>2.4633500725030899e-03</threshold>
            <left_node>1</left_node>
            <right_val>-0.3776564002037048</right_val></_>
          <_>
            <!-- node 1 -->
            <feature>
              <rects>
                <_>
                  20 0 11 34 -1.</_>
                <_>
                  20 17 11 17 2.</_></rects>
              <tilted>0</tilted></feature>
            <threshold>0.1293426007032394</threshold>
            <left_val>0.1781803071498871</left_val>
            <right_val>-0.7575864195823669</right_val></_></_>
        <_>
          <!-- tree 9 -->
          <_>
            <!-- root node -->
            <feature>
              <rects>
                <_>
                  20 4 15 3 -1.</_>
                <_>
                  20 5 15 1 3.</_></rects>
              <tilted>0</tilted></feature>
            <threshold>2.1271069999784231e-03</threshold>
            <left_node>1</left_node>
            <right_val>0.3818415999412537</right_val></_>
          <_>
            <!-- node 1 -->
            <feature>
              <rects>
                <_>
                  26 18 6 11 -1.</_>
                <_>
                  28 20 2 11 3.</_></rects>
              <tilted>1</tilted></feature>
            <threshold>9.3407128006219864e-03</threshold>
            <left_val>-0.2476973980665207</left_val>
            <right_val>0.2459788024425507</right_val></_></_>
        <_>
          <!-- tree 10 -->
          <_>
            <!-- root node -->
            <feature>
              <rects>
                <_>
                  21 23 3 7 -1.</_>
                <_>
                  22 23 1 7 3.</_></rects>
              <tilted>0</tilted></feature>
            <threshold>1.6449199756607413e-03</threshold>
            <left_node>1</left_node>
            <right_val>-0.6377629041671753</right_val></_>
          <_>
            <!-- node 1 -->
            <feature>
              <rects>
                <_>
                  1 23 6 10 -1.</_>
                <_>
                  1 23 3 5 2.</_>
                <_>
                  4 28 3 5 2.</_></rects>
              <tilted>0</tilted></feature>
            <threshold>1.1693580308929086e-03</threshold>
            <left_val>0.2095544934272766</left_val>
            <right_val>-0.2400673031806946</right_val></_></_>
        <_>
          <!-- tree 11 -->
          <_>
            <!-- root node -->
            <feature>
              <rects>
                <_>
                  0 17 16 18 -1.</_>
                <_>
                  4 17 8 18 2.</_></rects>
              <tilted>0</tilted></feature>
            <threshold>-0.0313804112374783</threshold>
            <left_val>0.3306157886981964</left_val>
            <right_node>1</right_node></_>
          <_>
            <!-- node 1 -->
            <feature>
              <rects>
                <_>
                  0 5 15 12 -1.</_>
                <_>
                  5 9 5 4 9.</_></rects>
              <tilted>0</tilted></feature>
            <threshold>9.8294876515865326e-03</threshold>
            <left_val>-0.4087713956832886</left_val>
            <right_val>0.0494161807000637</right_val></_></_>
        <_>
          <!-- tree 12 -->
          <_>
            <!-- root node -->
            <feature>
              <rects>
                <_>
                  16 25 3 4 -1.</_>
                <_>
                  17 25 1 4 3.</_></rects>
              <tilted>0</tilted></feature>
            <threshold>1.2434159871190786e-03</threshold>
            <left_node>1</left_node>
            <right_val>-0.7594327926635742</right_val></_>
          <_>
            <!-- node 1 -->
            <feature>
              <rects>
                <_>
                  30 32 2 2 -1.</_>
                <_>
                  31 32 1 2 2.</_></rects>
              <tilted>0</tilted></feature>
            <threshold>-2.1922300220467150e-04</threshold>
            <left_val>-0.4447475075721741</left_val>
            <right_val>0.1394950002431870</right_val></_></_>
        <_>
          <!-- tree 13 -->
          <_>
            <!-- root node -->
            <feature>
              <rects>
                <_>
                  22 7 2 9 -1.</_>
                <_>
                  23 7 1 9 2.</_></rects>
              <tilted>0</tilted></feature>
            <threshold>8.1415148451924324e-04</threshold>
            <left_node>1</left_node>
            <right_val>0.2836501896381378</right_val></_>
          <_>
            <!-- node 1 -->
            <feature>
              <rects>
                <_>
                  20 8 4 17 -1.</_>
                <_>
                  21 8 2 17 2.</_></rects>
              <tilted>0</tilted></feature>
            <threshold>1.3775889528915286e-03</threshold>
            <left_val>-0.4050858020782471</left_val>
            <right_val>0.1414133012294769</right_val></_></_>
        <_>
          <!-- tree 14 -->
          <_>
            <!-- root node -->
            <feature>
              <rects>
                <_>
                  20 13 1 2 -1.</_>
                <_>
                  20 14 1 1 2.</_></rects>
              <tilted>0</tilted></feature>
            <threshold>-1.2938199688505847e-05</threshold>
            <left_val>0.1869215965270996</left_val>
            <right_node>1</right_node></_>
          <_>
            <!-- node 1 -->
            <feature>
              <rects>
                <_>
                  20 13 1 2 -1.</_>
                <_>
                  20 14 1 1 2.</_></rects>
              <tilted>0</tilted></feature>
            <threshold>1.3382739780354314e-05</threshold>
            <left_val>-0.7269889116287231</left_val>
            <right_val>1.9050230039283633e-03</right_val></_></_>
        <_>
          <!-- tree 15 -->
          <_>
            <!-- root node -->
            <feature>
              <rects>
                <_>
                  1 10 2 4 -1.</_>
                <_>
                  1 10 1 2 2.</_>
                <_>
                  2 12 1 2 2.</_></rects>
              <tilted>0</tilted></feature>
            <threshold>-1.2126169895054772e-04</threshold>
            <left_val>-0.3943238854408264</left_val>
            <right_node>1</right_node></_>
          <_>
            <!-- node 1 -->
            <feature>
              <rects>
                <_>
                  0 9 4 4 -1.</_>
                <_>
                  0 9 2 2 2.</_>
                <_>
                  2 11 2 2 2.</_></rects>
              <tilted>0</tilted></feature>
            <threshold>2.7925948961637914e-04</threshold>
            <left_val>0.1993768960237503</left_val>
            <right_val>-0.3529650866985321</right_val></_></_>
        <_>
          <!-- tree 16 -->
          <_>
            <!-- root node -->
            <feature>
              <rects>
                <_>
                  3 0 28 3 -1.</_>
                <_>
                  3 1 28 1 3.</_></rects>
              <tilted>0</tilted></feature>
            <threshold>-0.0102578196674585</threshold>
            <left_val>0.6855291128158569</left_val>
            <right_node>1</right_node></_>
          <_>
            <!-- node 1 -->
            <feature>
              <rects>
                <_>
                  17 3 6 13 -1.</_>
                <_>
                  19 3 2 13 3.</_></rects>
              <tilted>0</tilted></feature>
            <threshold>0.0118494303897023</threshold>
            <left_val>-0.1248055994510651</left_val>
            <right_val>0.4531523883342743</right_val></_></_>
        <_>
          <!-- tree 17 -->
          <_>
            <!-- root node -->
            <feature>
              <rects>
                <_>
                  33 7 2 2 -1.</_>
                <_>
                  34 7 1 2 2.</_></rects>
              <tilted>0</tilted></feature>
            <threshold>-1.7670329543761909e-04</threshold>
            <left_val>-0.3553594052791595</left_val>
            <right_node>1</right_node></_>
          <_>
            <!-- node 1 -->
            <feature>
              <rects>
                <_>
                  24 10 8 1 -1.</_>
                <_>
                  28 10 4 1 2.</_></rects>
              <tilted>0</tilted></feature>
            <threshold>1.7511249752715230e-03</threshold>
            <left_val>-0.0445994995534420</left_val>
            <right_val>0.3674322068691254</right_val></_></_>
        <_>
          <!-- tree 18 -->
          <_>
            <!-- root node -->
            <feature>
              <rects>
                <_>
                  6 18 20 4 -1.</_>
                <_>
                  6 20 20 2 2.</_></rects>
              <tilted>0</tilted></feature>
            <threshold>-8.1622935831546783e-03</threshold>
            <left_val>0.3355309069156647</left_val>
            <right_node>1</right_node></_>
          <_>
            <!-- node 1 -->
            <feature>
              <rects>
                <_>
                  15 11 16 2 -1.</_>
                <_>
                  15 12 16 1 2.</_></rects>
              <tilted>0</tilted></feature>
            <threshold>-1.7067650333046913e-03</threshold>
            <left_val>0.2231483012437820</left_val>
            <right_val>-0.2652913033962250</right_val></_></_>
        <_>
          <!-- tree 19 -->
          <_>
            <!-- root node -->
            <feature>
              <rects>
                <_>
                  23 14 6 11 -1.</_>
                <_>
                  25 16 2 11 3.</_></rects>
              <tilted>1</tilted></feature>
            <threshold>0.0107273301109672</threshold>
            <left_node>1</left_node>
            <right_val>0.3158910870552063</right_val></_>
          <_>
            <!-- node 1 -->
            <feature>
              <rects>
                <_>
                  25 18 6 6 -1.</_>
                <_>
                  27 20 2 6 3.</_></rects>
              <tilted>1</tilted></feature>
            <threshold>6.8642660044133663e-03</threshold>
            <left_val>-0.3065403103828430</left_val>
            <right_val>0.2186397016048431</right_val></_></_>
        <_>
          <!-- tree 20 -->
          <_>
            <!-- root node -->
            <feature>
              <rects>
                <_>
                  16 27 3 3 -1.</_>
                <_>
                  17 28 1 1 9.</_></rects>
              <tilted>0</tilted></feature>
            <threshold>-1.0269579943269491e-03</threshold>
            <left_val>-0.4075323045253754</left_val>
            <right_node>1</right_node></_>
          <_>
            <!-- node 1 -->
            <feature>
              <rects>
                <_>
                  18 26 3 7 -1.</_>
                <_>
                  19 26 1 7 3.</_></rects>
              <tilted>0</tilted></feature>
            <threshold>1.1548120528459549e-03</threshold>
            <left_val>0.1532208025455475</left_val>
            <right_val>-0.5410016179084778</right_val></_></_>
        <_>
          <!-- tree 21 -->
          <_>
            <!-- root node -->
            <feature>
              <rects>
                <_>
                  10 2 25 18 -1.</_>
                <_>
                  10 8 25 6 3.</_></rects>
              <tilted>0</tilted></feature>
            <threshold>-0.0760109275579453</threshold>
            <left_val>0.3288511931896210</left_val>
            <right_node>1</right_node></_>
          <_>
            <!-- node 1 -->
            <feature>
              <rects>
